<?xml version="1.0"?>
<opencv_storage>
<cascade>
  <stageType>BOOST</stageType>
  <featureType>HAAR</featureType>
  <height>20</height>
  <width>20</width>
  <stageParams>
    <boostType>GAB</boostType>
    <minHitRate>9.9299997091293335e-01</minHitRate>
    <maxFalseAlarm>4.0000000596046448e-01</maxFalseAlarm>
    <weightTrimRate>9.4999999999999996e-01</weightTrimRate>
    <maxDepth>1</maxDepth>
    <maxWeakCount>100</maxWeakCount></stageParams>
  <featureParams>
    <maxCatCount>0</maxCatCount>
    <featSize>1</featSize>
    <mode>BASIC</mode></featureParams>
  <stageNum>8</stageNum>
  <stages>
    <!-- stage 0 -->
    <_>
      <maxWeakCount>1</maxWeakCount>
      <stageThreshold>9.8402905464172363e-01</stageThreshold>
      <weakClassifiers>
        <_>
          <internalNodes>
            0 -1 25 3.3195152878761292e-02</internalNodes>
          <leafValues>
            -8.8474577665328979e-01 9.8402905464172363e-01</leafValues></_></weakClassifiers></_>
    <!-- stage 1 -->
    <_>
      <maxWeakCount>2</maxWeakCount>
      <stageThreshold>1.2627455592155457e-01</stageThreshold>
      <weakClassifiers>
        <_>
          <internalNodes>
            0 -1 14 5.7531263679265976e-02</internalNodes>
          <leafValues>
            -7.6872962713241577e-01 9.7921985387802124e-01</leafValues></_>
        <_>
          <internalNodes>
            0 -1 26 -3.2566234469413757e-02</internalNodes>
          <leafValues>
            8.9500421285629272e-01 -8.0749660730361938e-01</leafValues></_></weakClassifiers></_>
    <!-- stage 2 -->
    <_>
      <maxWeakCount>4</maxWeakCount>
      <stageThreshold>-3.6895328760147095e-01</stageThreshold>
      <weakClassifiers>
        <_>
          <internalNodes>
            0 -1 15 4.2897671461105347e-02</internalNodes>
          <leafValues>
            -5.2047783136367798e-01 9.4396084547042847e-01</leafValues></_>
        <_>
          <internalNodes>
            0 -1 19 -6.2981426715850830e-02</internalNodes>
          <leafValues>
            7.9080319404602051e-01 -4.9544948339462280e-01</leafValues></_>
        <_>
          <internalNodes>
            0 -1 28 -2.3619222702109255e-05</internalNodes>
          <leafValues>
            6.8990260362625122e-01 -4.3235373497009277e-01</leafValues></_>
        <_>
          <internalNodes>
            0 -1 27 -4.2627759277820587e-02</internalNodes>
          <leafValues>
            7.7919197082519531e-01 -3.8511091470718384e-01</leafValues></_></weakClassifiers></_>
    <!-- stage 3 -->
    <_>
      <maxWeakCount>5</maxWeakCount>
      <stageThreshold>-1.8133458495140076e-01</stageThreshold>
      <weakClassifiers>
        <_>
          <internalNodes>
            0 -1 5 -4.3709792196750641e-02</internalNodes>
          <leafValues>
            -8.6609071493148804e-01 8.6913180351257324e-01</leafValues></_>
        <_>
          <internalNodes>
            0 -1 21 -5.6518598285038024e-05</internalNodes>
          <leafValues>
            6.6368877887725830e-01 -6.6639107465744019e-01</leafValues></_>
        <_>
          <internalNodes>
            0 -1 4 4.7740388661623001e-02</internalNodes>
          <leafValues>
            4.0025910735130310e-01 -9.3748587369918823e-01</leafValues></_>
        <_>
          <internalNodes>
            0 -1 29 1.0015279054641724e-01</internalNodes>
          <leafValues>
            -4.4740769267082214e-01 6.8243443965911865e-01</leafValues></_>
        <_>
          <internalNodes>
            0 -1 1 -1.0302707552909851e-02</internalNodes>
          <leafValues>
            7.8717881441116333e-01 -3.3692672848701477e-01</leafValues></_></weakClassifiers></_>
    <!-- stage 4 -->
    <_>
      <maxWeakCount>5</maxWeakCount>
      <stageThreshold>-2.4121107161045074e-01</stageThreshold>
      <weakClassifiers>
        <_>
          <internalNodes>
            0 -1 6 -5.6981850415468216e-02</internalNodes>
          <leafValues>
            8.8268834352493286e-01 -6.6987180709838867e-01</leafValues></_>
        <_>
          <internalNodes>
            0 -1 14 1.1895024776458740e-01</internalNodes>
          <leafValues>
            -3.8720053434371948e-01 8.4858530759811401e-01</leafValues></_>
        <_>
          <internalNodes>
            0 -1 17 -1.5059040486812592e-01</internalNodes>
          <leafValues>
            8.5026001930236816e-01 -4.0980219841003418e-01</leafValues></_>
        <_>
          <internalNodes>
            0 -1 34 -2.2104009985923767e-05</internalNodes>
          <leafValues>
            4.7472754120826721e-01 -5.5922091007232666e-01</leafValues></_>
        <_>
          <internalNodes>
            0 -1 12 7.2709619998931885e-02</internalNodes>
          <leafValues>
            -5.0912630558013916e-01 4.8132008314132690e-01</leafValues></_></weakClassifiers></_>
    <!-- stage 5 -->
    <_>
      <maxWeakCount>6</maxWeakCount>
      <stageThreshold>-5.4251384735107422e-01</stageThreshold>
      <weakClassifiers>
        <_>
          <internalNodes>
            0 -1 24 6.0161924920976162e-03</internalNodes>
          <leafValues>
            -2.9735234379768372e-01 8.9962559938430786e-01</leafValues></_>
        <_>
          <internalNodes>
            0 -1 18 -7.0257544517517090e-02</internalNodes>
          <leafValues>
            7.4383020401000977e-01 -5.9632730484008789e-01</leafValues></_>
        <_>
          <internalNodes>
            0 -1 9 1.5413600206375122e-01</internalNodes>
          <leafValues>
            -3.9552780985832214e-01 7.2819727659225464e-01</leafValues></_>
        <_>
          <internalNodes>
            0 -1 30 -5.5598757171537727e-05</internalNodes>
          <leafValues>
            5.2075201272964478e-01 -5.1256430149078369e-01</leafValues></_>
        <_>
          <internalNodes>
            0 -1 33 6.1472717789001763e-05</internalNodes>
          <leafValues>
            -8.3054548501968384e-01 3.0130699276924133e-01</leafValues></_>
        <_>
          <internalNodes>
            0 -1 11 -6.2179941684007645e-02</internalNodes>
          <leafValues>
            6.8791860342025757e-01 -3.8220664858818054e-01</leafValues></_></weakClassifiers></_>
    <!-- stage 6 -->
    <_>
      <maxWeakCount>7</maxWeakCount>
      <stageThreshold>1.9323207437992096e-01</stageThreshold>
      <weakClassifiers>
        <_>
          <internalNodes>
            0 -1 7 -3.0602488666772842e-02</internalNodes>
          <leafValues>
            -7.5741237401962280e-01 8.5222756862640381e-01</leafValues></_>
        <_>
          <internalNodes>
            0 -1 31 -3.8520663976669312e-02</internalNodes>
          <leafValues>
            7.1642935276031494e-01 -3.4538158774375916e-01</leafValues></_>
        <_>
          <internalNodes>
            0 -1 3 6.8306811153888702e-03</internalNodes>
          <leafValues>
            -6.7561739683151245e-01 4.7667458653450012e-01</leafValues></_>
        <_>
          <internalNodes>
            0 -1 16 -7.1926770033314824e-05</internalNodes>
          <leafValues>
            4.0003752708435059e-01 -5.6035995483398438e-01</leafValues></_>
        <_>
          <internalNodes>
            0 -1 10 9.7438745200634003e-02</internalNodes>
          <leafValues>
            -4.4726943969726562e-01 5.1491659879684448e-01</leafValues></_>
        <_>
          <internalNodes>
            0 -1 0 -6.2272846698760986e-02</internalNodes>
          <leafValues>
            8.2221925258636475e-01 -2.6478081941604614e-01</leafValues></_>
        <_>
          <internalNodes>
            0 -1 23 -4.2132753878831863e-03</internalNodes>
          <leafValues>
            6.7909562587738037e-01 -2.8816983103752136e-01</leafValues></_></weakClassifiers></_>
    <!-- stage 7 -->
    <_>
      <maxWeakCount>6</maxWeakCount>
      <stageThreshold>5.4240197641775012e-04</stageThreshold>
      <weakClassifiers>
        <_>
          <internalNodes>
            0 -1 20 1.2902602553367615e-02</internalNodes>
          <leafValues>
            8.6489933729171753e-01 -8.7935036420822144e-01</leafValues></_>
        <_>
          <internalNodes>
            0 -1 8 -4.2003586888313293e-02</internalNodes>
          <leafValues>
            -7.4106818437576294e-01 6.1777687072753906e-01</leafValues></_>
        <_>
          <internalNodes>
            0 -1 22 1.4771860837936401e-01</internalNodes>
          <leafValues>
            -5.1749771833419800e-01 6.0864919424057007e-01</leafValues></_>
        <_>
          <internalNodes>
            0 -1 13 -2.6308138330932707e-05</internalNodes>
          <leafValues>
            3.3556482195854187e-01 -7.4248355627059937e-01</leafValues></_>
        <_>
          <internalNodes>
            0 -1 2 -2.3855366744101048e-03</internalNodes>
          <leafValues>
            5.0617676973342896e-01 -4.5156568288803101e-01</leafValues></_>
        <_>
          <internalNodes>
            0 -1 32 5.7414581533521414e-05</internalNodes>
          <leafValues>
            -4.4753256440162659e-01 4.3660035729408264e-01</leafValues></_></weakClassifiers></_></stages>
  <features>
    <_>
      <rects>
        <_>
          0 2 4 17 -1.</_>
        <_>
          2 2 2 17 2.</_></rects>
      <tilted>0</tilted></_>
    <_>
      <rects>
        <_>
          0 4 2 13 -1.</_>
        <_>
          1 4 1 13 2.</_></rects>
      <tilted>0</tilted></_>
    <_>
      <rects>
        <_>
          0 9 2 5 -1.</_>
        <_>
          1 9 1 5 2.</_></rects>
      <tilted>0</tilted></_>
    <_>
      <rects>
        <_>
          1 9 13 3 -1.</_>
        <_>
          1 10 13 1 3.</_></rects>
      <tilted>0</tilted></_>
    <_>
      <rects>
        <_>
          2 4 6 12 -1.</_>
        <_>
          2 10 6 6 2.</_></rects>
      <tilted>0</tilted></_>
    <_>
      <rects>
        <_>
          3 5 5 12 -1.</_>
        <_>
          3 11 5 6 2.</_></rects>
      <tilted>0</tilted></_>
    <_>
      <rects>
        <_>
          3 7 10 12 -1.</_>
        <_>
          3 7 5 6 2.</_>
        <_>
          8 13 5 6 2.</_></rects>
      <tilted>0</tilted></_>
    <_>
      <rects>
        <_>
          3 13 16 3 -1.</_>
        <_>
          11 13 8 3 2.</_></rects>
      <tilted>0</tilted></_>
    <_>
      <rects>
        <_>
          4 3 14 6 -1.</_>
        <_>
          11 3 7 6 2.</_></rects>
      <tilted>0</tilted></_>
    <_>
      <rects>
        <_>
          4 9 12 3 -1.</_>
        <_>
          8 9 4 3 3.</_></rects>
      <tilted>0</tilted></_>
    <_>
      <rects>
        <_>
          5 1 6 12 -1.</_>
        <_>
          5 1 3 6 2.</_>
        <_>
          8 7 3 6 2.</_></rects>
      <tilted>0</tilted></_>
    <_>
      <rects>
        <_>
          5 11 10 6 -1.</_>
        <_>
          5 13 10 2 3.</_></rects>
      <tilted>0</tilted></_>
    <_>
      <rects>
        <_>
          6 7 8 6 -1.</_>
        <_>
          6 9 8 2 3.</_></rects>
      <tilted>0</tilted></_>
    <_>
      <rects>
        <_>
          6 8 3 1 -1.</_>
        <_>
          7 8 1 1 3.</_></rects>
      <tilted>0</tilted></_>
    <_>
      <rects>
        <_>
          6 8 9 4 -1.</_>
        <_>
          9 8 3 4 3.</_></rects>
      <tilted>0</tilted></_>
    <_>
      <rects>
        <_>
          6 9 9 2 -1.</_>
        <_>
          9 9 3 2 3.</_></rects>
      <tilted>0</tilted></_>
    <_>
      <rects>
        <_>
          8 0 1 2 -1.</_>
        <_>
          8 1 1 1 2.</_></rects>
      <tilted>0</tilted></_>
    <_>
      <rects>
        <_>
          8 0 5 12 -1.</_>
        <_>
          8 4 5 4 3.</_></rects>
      <tilted>0</tilted></_>
    <_>
      <rects>
        <_>
          8 2 5 9 -1.</_>
        <_>
          8 5 5 3 3.</_></rects>
      <tilted>0</tilted></_>
    <_>
      <rects>
        <_>
          8 2 6 9 -1.</_>
        <_>
          8 5 6 3 3.</_></rects>
      <tilted>0</tilted></_>
    <_>
      <rects>
        <_>
          8 4 6 4 -1.</_>
        <_>
          11 4 3 4 2.</_></rects>
      <tilted>0</tilted></_>
    <_>
      <rects>
        <_>
          8 6 1 3 -1.</_>
        <_>
          8 7 1 1 3.</_></rects>
      <tilted>0</tilted></_>
    <_>
      <rects>
        <_>
          8 6 4 9 -1.</_>
        <_>
          8 9 4 3 3.</_></rects>
      <tilted>0</tilted></_>
    <_>
      <rects>
        <_>
          8 18 6 2 -1.</_>
        <_>
          8 19 6 1 2.</_></rects>
      <tilted>0</tilted></_>
    <_>
      <rects>
        <_>
          9 4 3 14 -1.</_>
        <_>
          10 4 1 14 3.</_></rects>
      <tilted>0</tilted></_>
    <_>
      <rects>
        <_>
          9 4 3 8 -1.</_>
        <_>
          9 8 3 4 2.</_></rects>
      <tilted>0</tilted></_>
    <_>
      <rects>
        <_>
          9 8 3 10 -1.</_>
        <_>
          9 13 3 5 2.</_></rects>
      <tilted>0</tilted></_>
    <_>
      <rects>
        <_>
          9 10 2 6 -1.</_>
        <_>
          9 13 2 3 2.</_></rects>
      <tilted>0</tilted></_>
    <_>
      <rects>
        <_>
          10 0 1 2 -1.</_>
        <_>
          10 1 1 1 2.</_></rects>
      <tilted>0</tilted></_>
    <_>
      <rects>
        <_>
          10 7 6 12 -1.</_>
        <_>
          10 7 3 6 2.</_>
        <_>
          13 13 3 6 2.</_></rects>
      <tilted>0</tilted></_>
    <_>
      <rects>
        <_>
          11 0 1 2 -1.</_>
        <_>
          11 1 1 1 2.</_></rects>
      <tilted>0</tilted></_>
    <_>
      <rects>
        <_>
          11 5 6 8 -1.</_>
        <_>
          13 5 2 8 3.</_></rects>
      <tilted>0</tilted></_>
    <_>
      <rects>
        <_>
          12 3 2 1 -1.</_>
        <_>
          13 3 1 1 2.</_></rects>
      <tilted>0</tilted></_>
    <_>
      <rects>
        <_>
          12 11 2 2 -1.</_>
        <_>
          12 11 1 1 2.</_>
        <_>
          13 12 1 1 2.</_></rects>
      <tilted>0</tilted></_>
    <_>
      <rects>
        <_>
          12 12 3 1 -1.</_>
        <_>
          13 12 1 1 3.</_></rects>
      <tilted>0</tilted></_></features></cascade>
</opencv_storage>
